<?xml version="1.0"?>
<opencv_storage>
<cascade>
  <stageType>BOOST</stageType>
  <featureType>HAAR</featureType>
  <height>21</height>
  <width>34</width>
  <stageParams>
    <boostType>GAB</boostType>
    <minHitRate>9.9500000476837158e-01</minHitRate>
    <maxFalseAlarm>5.0000000000000000e-01</maxFalseAlarm>
    <weightTrimRate>9.4999998807907104e-01</weightTrimRate>
    <maxDepth>1</maxDepth>
    <maxWeakCount>100</maxWeakCount></stageParams>
  <featureParams>
    <maxCatCount>0</maxCatCount>
    <featSize>1</featSize>
    <mode>BASIC</mode></featureParams>
  <stageNum>4</stageNum>
  <stages>
    <!-- stage 0 -->
    <_>
      <maxWeakCount>3</maxWeakCount>
      <stageThreshold>-8.9834123849868774e-01</stageThreshold>
      <weakClassifiers>
        <_>
          <internalNodes>
            0 -1 7 -1.0029342025518417e-01</internalNodes>
          <leafValues>
            7.9005527496337891e-01 -9.0582960844039917e-01</leafValues></_>
        <_>
          <internalNodes>
            0 -1 0 -3.6202494055032730e-02</internalNodes>
          <leafValues>
            6.6337621212005615e-01 -7.9350119829177856e-01</leafValues></_>
        <_>
          <internalNodes>
            0 -1 9 9.7970739006996155e-03</internalNodes>
          <leafValues>
            -6.5588790178298950e-01 8.5386914014816284e-01</leafValues></_></weakClassifiers></_>
    <!-- stage 1 -->
    <_>
      <maxWeakCount>3</maxWeakCount>
      <stageThreshold>-8.8443952798843384e-01</stageThreshold>
      <weakClassifiers>
        <_>
          <internalNodes>
            0 -1 6 -9.6982225775718689e-02</internalNodes>
          <leafValues>
            6.1676645278930664e-01 -7.9130434989929199e-01</leafValues></_>
        <_>
          <internalNodes>
            0 -1 8 -2.3884108290076256e-02</internalNodes>
          <leafValues>
            7.7516847848892212e-01 -7.0704144239425659e-01</leafValues></_>
        <_>
          <internalNodes>
            0 -1 5 1.6987007111310959e-02</internalNodes>
          <leafValues>
            -7.9416453838348389e-01 6.7802017927169800e-01</leafValues></_></weakClassifiers></_>
    <!-- stage 2 -->
    <_>
      <maxWeakCount>2</maxWeakCount>
      <stageThreshold>-2.9643279314041138e-01</stageThreshold>
      <weakClassifiers>
        <_>
          <internalNodes>
            0 -1 4 -1.9950685091316700e-03</internalNodes>
          <leafValues>
            7.6608186960220337e-01 -8.5964912176132202e-01</leafValues></_>
        <_>
          <internalNodes>
            0 -1 2 2.4431859492324293e-04</internalNodes>
          <leafValues>
            5.6321632862091064e-01 -9.7980695962905884e-01</leafValues></_></weakClassifiers></_>
    <!-- stage 3 -->
    <_>
      <maxWeakCount>2</maxWeakCount>
      <stageThreshold>1.3422818854451180e-02</stageThreshold>
      <weakClassifiers>
        <_>
          <internalNodes>
            0 -1 3 -3.8792593404650688e-03</internalNodes>
          <leafValues>
            -9.8657715320587158e-01 1.</leafValues></_>
        <_>
          <internalNodes>
            0 -1 1 -1.7634026007726789e-03</internalNodes>
          <leafValues>
            -9.6936541795730591e-01 1.</leafValues></_></weakClassifiers></_></stages>
  <features>
    <_>
      <rects>
        <_>
          0 13 18 8 -1.</_>
        <_>
          0 13 9 4 2.</_>
        <_>
          9 17 9 4 2.</_></rects>
      <tilted>0</tilted></_>
    <_>
      <rects>
        <_>
          1 12 5 4 -1.</_>
        <_>
          1 14 5 2 2.</_></rects>
      <tilted>0</tilted></_>
    <_>
      <rects>
        <_>
          2 0 2 6 -1.</_>
        <_>
          2 3 2 3 2.</_></rects>
      <tilted>0</tilted></_>
    <_>
      <rects>
        <_>
          2 12 7 4 -1.</_>
        <_>
          2 14 7 2 2.</_></rects>
      <tilted>0</tilted></_>
    <_>
      <rects>
        <_>
          2 20 6 1 -1.</_>
        <_>
          5 20 3 1 2.</_></rects>
      <tilted>0</tilted></_>
    <_>
      <rects>
        <_>
          7 1 8 10 -1.</_>
        <_>
          11 1 4 10 2.</_></rects>
      <tilted>0</tilted></_>
    <_>
      <rects>
        <_>
          7 15 13 6 -1.</_>
        <_>
          7 18 13 3 2.</_></rects>
      <tilted>0</tilted></_>
    <_>
      <rects>
        <_>
          7 15 22 6 -1.</_>
        <_>
          7 18 22 3 2.</_></rects>
      <tilted>0</tilted></_>
    <_>
      <rects>
        <_>
          28 2 2 18 -1.</_>
        <_>
          28 11 2 9 2.</_></rects>
      <tilted>0</tilted></_>
    <_>
      <rects>
        <_>
          29 13 5 6 -1.</_>
        <_>
          29 15 5 2 3.</_></rects>
      <tilted>0</tilted></_></features></cascade>
</opencv_storage>
